digraph Tree {
node [shape=box] ;
0 [label="X[3] <= 0.8\ngini = 0.5528\nsamples = 50\nvalue = [25, 22, 3]"] ;
1 [label="gini = 0.0\nsamples = 25\nvalue = [25, 0, 0]"] ;
0 -> 1 [labeldistance=2.5, labelangle=45, headlabel="True"] ;
2 [label="X[3] <= 1.65\ngini = 0.2112\nsamples = 25\nvalue = [0, 22, 3]"] ;
0 -> 2 [labeldistance=2.5, labelangle=-45, headlabel="False"] ;
3 [label="gini = 0.0868\nsamples = 22\nvalue = [0, 21, 1]"] ;
2 -> 3 ;
4 [label="gini = 0.4444\nsamples = 3\nvalue = [0, 1, 2]"] ;
2 -> 4 ;
}